-0.0785703 0.2160975 -0.3749184 -0.2405217 0.4089167 0.3496736 0.1269205 0.3489680 0.1770305 -0.1697551 0.3267496 -0.1584714 -0.2334490 -0.2246563 0.4864392 0.5883592 -0.4732842 -0.3112020 -0.0742305 0.1224057 0.6487299 -0.3187805 0.0848450 0.3048153 0.1587449 0.1632749 0.0538672 0.2669028 0.1703376 0.2851213 -0.2514239 -0.2608008 -0.1756463 -0.0404047 -0.2346162 0.4879706 0.0410221 -0.1715271 0.2935008 0.4132940 0.2170853 0.4556041 0.0360506 -0.0445914 -0.2104476 -0.1377928 0.2371925 0.9232158 0.5507141 0.1577789 0.4933800 0.5002064 0.2387852 0.2365884 0.5663811 0.3764011 0.2601040 0.3202578 -0.0823202 -0.3374153 0.1696464 0.4311842 0.5566735 0.2902204 0.0410605 -0.1218291 0.0487802 0.1627913 -0.1400992 0.3153869 -0.0435864 0.3227223 -0.4203488 -0.1452609 0.5059825 -0.0603385 0.2548243 0.0964234 -0.1963710 0.1042521 0.1365119 0.7313453 0.3992123 0.0643706 0.3103298 -0.2007763 -0.1140842 0.2856590 -0.3776985 -0.4565348 -0.6004494 0.3843367 0.1401182 -0.2543412 0.6302945 -0.4035958 0.3576686 0.1106831 -0.1517534 0.1334867 0.1108959 -0.2417192 0.0409398 -0.2669022 -0.1144544 -0.0960295 0.1269444 0.3248596 -0.0020495 0.5839484 0.3669396 0.1061839 -0.5786399 0.1465605 -0.1139305 -0.5215497 0.4348598 -0.1001781 -0.0439861 0.2673757 -0.2134568 -0.0106637 0.0552262 -0.1722486 -0.2555733 0.4041253 0.4453776 -0.2877815 0.0594625 -0.1589029 -0.1281647 0.0752390 0.4825309 -0.4795759 0.1627100 0.4536103 0.0831512 0.0438548 -0.1763746 -0.2781029 0.0699124 -0.0075975 -0.3658061 0.2978438 0.3336992 0.4871945 0.2627737 -0.3529666 -0.4161908 -0.0857788 0.1590331 0.2058649 0.4133844 -0.4558228 0.3986168 0.3053329 0.2588889 -0.0855607 -0.0592569 0.6169880 -0.2842333 0.5865239 0.0766424 0.2855971 0.1662576 0.4534172 -0.1782814 -0.4588956 -0.3560785 -0.1040043 -0.4629528 0.2772455 -0.0108701 0.4838460 0.3771179 -0.4291635 0.2953613 0.3882710 0.4209263 0.0533270 0.2921949 -0.2390900 -0.2832820 -0.2274325 0.2932928 0.4140957 -0.0039875 -0.3493511 0.0317520 0.5589858 -0.1020906 -0.3786591 -0.2933587 -0.2092156 0.3969133 -0.0916943 0.3446189 -0.2695371 0.3165246 -0.3450575 0.6173356 -0.0176138 -0.3153351 0.3515698 0.2669554 -0.2945480 -0.3334532 -0.2046320 -0.3116255 0.0482544 0.3738333 -0.6580884 -0.2484944 0.6861346 -0.1462299 -0.1831265 0.2517509 -0.5344889 0.3508638 0.4144939 0.3570551 0.1636623 0.2181087 -0.2784913 0.1425379 -0.2104686 -0.4902723 0.1916795 0.5237664 0.2161612 0.5695858 -0.8451582 0.0566421 0.5867829 -0.3366243 0.4690808 0.3006830 -0.0618381 -0.0908743 0.2626408 -0.1831366 -0.1538767 0.3376103 -0.2821919 0.8850266 0.2315844 0.7247215 0.4467801 0.5729689 0.1699712 0.3046923 -0.0250826 -0.1842291 0.1898724 0.3160973 0.2614672 0.1195203 0.1615801 0.1731569 0.5549704 -0.2084479 -0.4294707 -0.0395539 -0.3824809 -0.1063377 0.4717624 -0.2035955 -0.1427120 0.0419863 0.2951860 0.0526749 0.5848447 -0.3998461 -0.2928578 -0.2430322 -0.1087706 -0.5493452 0.1278798 -0.4761074 0.3375897 -0.2872349 -0.4579261 0.2244385 0.1976664 0.2759091 0.4263292 0.5465388 -0.0798990 0.4136012 -0.3093312 -0.1488202 -0.6180316 0.2543419 -0.2084006 -0.5070562 -0.0374753 0.4925647 0.4126004 -0.6528436 -0.3370170 -0.4930878 0.5301898 0.2504462 0.3227928 -0.0662669 0.0558693 -0.3611602 0.2287463 0.3606311 0.0110160 0.4089537 -0.6594088 -0.0920736 -0.1153472 0.5391118 0.5821129 -0.0197701 0.1649568 0.0767165 0.4419665 -0.2026202 0.0613921 -0.4423321 -0.3352997 0.7839101 0.2136277 -0.4685971 -0.1322124 0.1221281 0.2827436 -0.3097758 0.3588041 -0.1375545 -0.3072743 -0.0040369 -0.3449065 0.2503967 -0.5901156 0.1993896 0.4112885 0.2959336 -0.0958978 0.2284945 -0.3047994 -0.3375643 -0.6544276 -0.2298774 0.6311910 -0.2471347 -0.2395262 0.4556259 -0.0531615 -0.1651574 0.0826203 0.2076440 -0.3496890 -0.3745920 0.0418941 0.9485949 -0.2750794 -0.0287255 -0.3896677 0.2214477 0.6695154 -0.0813463 -0.0037097 -0.4839369 0.3635213 0.2422484 0.2359529 -0.3189451 0.1305337 -0.4025588 0.0504641 0.2103434 0.2383541 -0.5000338 0.1055816 -0.0830628 0.0429909 -0.4604121 -0.0074485 0.2752794 -0.1400606 0.3292104 0.0135086 -0.7692571 -0.2365348 -0.0882441 0.0171156 -0.5575351 0.3101557 -0.4348341 -0.4038469 0.5215300 0.0237523 -0.3538670 -0.0466731 -0.2182575 -0.0661174 
-0.1491224 0.8997955 -0.1983027 -0.5562828 0.2146658 -0.0097127 -0.3314792 -0.6542642 -0.5590411 0.4427782 -0.1296516 -0.3111912 0.6483194 -0.1555080 0.4466726 0.7124799 -0.6010135 -0.1492310 -0.5066075 0.5074829 0.1407322 0.5811156 0.7331896 0.4649947 -0.1389516 -0.5256627 0.4883825 -0.4233453 0.2553656 -0.3409806 -0.9643996 -0.2763225 0.1393973 0.4190976 -0.6528496 0.4232606 0.1618421 0.0427605 -0.2685604 0.1432971 -1.0471698 -0.2079595 0.2126582 0.1281965 0.4001734 -0.8830797 0.1629484 0.3997623 0.2607420 -0.0064852 -0.1558344 0.1278124 0.0345739 0.6259307 0.0375257 -0.6316618 -0.3693475 0.3180295 -0.0943741 0.3959397 0.1534109 -0.1833856 0.1023221 0.4118520 -0.0244517 -0.1580465 -0.1027591 0.2494145 -0.4056181 0.1743394 -0.2052092 -0.2293760 0.1042064 -0.0017873 0.3062899 -0.1788269 0.7829928 0.0076338 0.2344283 1.0754993 0.6633029 -0.5238471 -0.2333906 0.6555252 -0.1605231 -0.3079568 0.5844200 -1.0546699 0.1335177 0.2948971 0.6614486 0.4814592 -0.1748544 0.2806480 0.6914589 1.0608205 0.0422328 -0.0416418 -0.2672296 0.1507873 -0.3523960 0.0997587 0.2504915 0.7019083 0.1009012 0.4417731 0.3767495 -0.0347591 -0.0409264 0.0984447 -0.3761471 -0.0017465 -0.3146704 -0.1682071 0.1380159 -0.4453994 -0.2155493 0.0465397 0.5107151 -0.2426136 0.4920197 -0.3904321 -0.0376775 0.5068931 0.1473628 -0.3811052 -0.2920463 0.6147105 -0.5581455 -0.5101956 -0.2654121 0.5790719 0.6951949 0.4151105 -0.0263104 0.2734063 -0.7366000 0.1546943 0.1268488 -0.1883015 0.3948950 0.0590509 0.5605166 0.1675286 -0.3908513 0.0856063 -0.3195304 0.5241919 0.3960815 -0.3095946 0.1602285 0.1555249 0.4577063 -0.0648238 0.6082781 -0.0401200 0.6632072 -0.3909333 -0.4050462 -0.1796279 0.2592942 -0.7043727 0.0980392 -0.2310813 0.3772622 0.1003296 0.0402211 -0.6094757 -0.2133884 -0.0149434 0.2232016 -0.0394573 -0.4255144 -0.2158196 0.2220449 0.0264871 0.6260962 -0.8445153 -0.7198420 -0.7093523 0.0105898 -0.5922910 0.6226078 -0.3033694 -0.7092601 0.3026150 0.0661347 0.1185171 0.0855883 0.0208701 -0.1775370 -0.7141792 0.5353449 -0.3648953 -0.0508608 -0.3104738 0.2195766 0.2031628 0.0536162 0.1131351 0.2526377 -0.0066649 0.2840802 -0.1995963 0.5158824 0.0974719 -0.3350473 -0.5269020 0.1000466 0.9698232 0.0604768 -0.1789881 -0.1416225 -0.4705115 0.1399527 -0.5916525 0.0963485 -0.1216738 0.1300746 -0.3841914 -0.2438892 -0.2557530 -0.0599086 0.6316769 -0.0107295 0.2655796 0.4435464 0.0407432 0.2403023 0.3378476 0.4007595 -0.2559518 -0.4938636 -0.6112565 -0.1691028 0.2048995 -0.0181848 -0.1011812 -0.1809169 0.0650083 0.6366748 0.3123093 -0.4225918 -0.2267143 -0.0183751 -0.1901045 -0.0679543 -0.0039910 0.3836534 -0.0593967 -0.1137413 0.2714500 0.0373751 -0.0169419 -0.1314423 0.2315758 0.0248071 -0.0047948 0.3784929 -0.1917328 0.8045901 0.1420285 -0.5778697 -0.1339654 -0.2701221 0.1272792 0.0918364 -0.0629226 0.8063374 -0.4960945 -0.0048427 -0.2426865 0.2037076 0.6000905 0.3129028 -0.4819945 0.1742285 0.3980553 0.0049751 -0.3315491 0.2863980 0.3061340 -0.6391799 -0.0379065 -0.5930526 0.0373520 -0.0097973 -0.4070665 0.1420594 -0.5210953 0.4791626 -0.6947959 0.1108581 0.5128048 0.5153002 -0.3817717 0.1068205 -0.2379963 -0.1142285 0.9735734 0.4078066 0.3641632 0.1635742 -0.0774612 -0.4977109 0.5537475 -0.2490687 0.1340482 0.6098427 0.0606177 0.4822087 -0.3871935 -0.1014164 -0.7472140 0.2825198 -0.4756631 0.0307971 0.4268772 0.4024269 -0.2002745 -0.1162774 -0.2939500 -0.0949756 -0.5925206 0.4375598 -0.2698758 -0.0611498 0.0824468 -0.5377893 0.6820764 -0.5746582 0.0450228 -0.2748349 0.1254454 -0.3846835 -0.0133765 -0.4632968 0.3302298 0.4971682 0.4813280 -0.1425856 0.4487139 0.1841228 -0.9101914 -0.2578934 -0.7781504 0.0359777 -0.3593007 0.0684056 0.2116282 0.0838819 0.2109558 -0.0795879 -0.2620048 0.2774758 0.0038371 -0.0681540 -0.1696921 0.1117476 0.5581954 0.6948605 0.3499758 0.6049030 0.1089587 0.4122282 -0.0114281 -0.2672605 -0.0049507 -0.2797405 0.5305367 0.3029034 0.0888281 -0.5293719 -0.1750788 -0.6253295 0.0581675 0.1341425 -0.2436613 -0.2428952 0.2740100 0.2544172 0.7579898 -0.1617155 0.2105621 0.9507954 -0.2831613 0.6219154 -0.3493623 -0.1385673 0.3959682 0.5693691 0.1083577 0.1684037 0.0662390 -0.1021497 0.5692258 -0.0601697 0.1278252 0.2741592 -0.6739258 
0.3978556 0.3099503 0.4695475 -0.0287562 0.7298094 0.4384071 -0.0221162 -0.1149889 0.0157327 -0.3344756 -0.3611396 -0.0164012 -0.3311818 0.5370811 0.4117680 -0.1888215 -0.4971513 -0.3647804 0.3517951 0.1469007 0.3604332 -0.3653713 -0.1390311 -0.0869620 0.4000237 0.4171412 0.2789229 0.2678930 -0.2244127 -0.3533619 0.2396566 0.0389042 0.2958588 0.3609416 -0.0487294 -0.0894604 -0.4460432 -0.2170995 0.5279180 0.1756876 0.5698055 -0.2248667 -0.2835258 -0.4485838 0.3328012 0.7412669 0.1914543 0.4338980 0.0920245 0.2879732 -0.5875964 -0.6991238 -0.3850522 -0.0052130 -0.4425382 -0.3249347 0.1901183 0.3056538 0.0908793 -0.4161383 -0.3504098 0.3830787 -0.1401287 0.0956038 -0.0110347 0.4209727 0.1950559 -0.1858339 0.0830796 0.2959023 -0.2366739 -0.0203331 0.3802654 0.3938083 0.0917798 0.1170953 0.3747670 0.1630590 -0.3838067 0.3162606 -0.3615238 -0.3184876 0.2090663 0.0784348 0.3028998 0.1784766 0.3900515 -0.2615297 0.0232310 -0.1974807 0.0814068 -0.6065631 0.1662131 -0.1775443 -0.4775406 0.4158020 -0.3707803 -0.3587485 -0.0732162 0.2299747 0.0005457 -0.0368111 0.3576776 0.3378451 0.4856129 -0.0572381 0.3556796 0.4385186 -0.0717643 -0.4690153 0.2179513 0.2137591 -0.6235573 0.1879016 0.3557312 0.2721594 0.2536723 -0.1745266 0.0583757 -0.6364990 -0.2769588 0.4842642 -0.0623102 -0.1914859 -0.0344030 -0.1365988 0.1805365 -0.0101796 0.0071934 -0.0116288 0.5159684 -0.2072290 0.0481055 0.3098861 0.3385856 -0.2329199 -0.5327986 0.1699391 -0.2575316 -0.5419480 -0.5702957 0.5362372 0.0257167 0.0658976 -0.0942343 -0.0834782 -0.4535230 0.1292337 -0.4013186 0.1807831 0.2080888 -0.4648692 -0.1283536 0.5113673 -0.3720669 0.1684879 0.3614757 0.0550699 0.0230502 -0.4410029 -0.4703001 0.4997103 -0.4987413 -0.3913341 -0.0695193 0.3251794 0.1895292 -0.1215455 -0.0418534 0.3611771 -0.0753667 0.4122437 -0.3205076 -0.0694007 -0.1842522 -0.0189903 -0.0320672 -0.5292768 0.1550022 0.2393193 0.0893611 -0.2780583 -0.1250905 -0.0061543 -0.0236309 0.4178280 0.4704404 -0.0536789 0.2899730 -0.2824867 -0.3503748 -0.0212449 0.2708314 0.5376046 0.3330017 -0.2365038 -0.4000768 0.3920417 0.0096856 0.2761295 0.3680270 -0.3763374 0.0396373 0.0137659 0.3005469 -0.0674115 -0.0383594 0.3466227 0.2400108 -0.0023158 0.1546797 0.2232871 0.7778132 0.2851604 0.1015710 -0.0186957 0.1651340 0.5163695 -0.4156520 -0.2360203 0.1667157 0.4101503 -0.3717958 0.8116818 0.3008151 0.4021037 0.4633022 0.0740682 -0.4895566 -0.1565920 -0.7243532 -0.3088271 -0.1087181 -0.0830599 0.1417405 0.0225195 -0.0557902 0.0386036 0.1691823 0.0007887 0.4161190 -0.2399177 -0.4081178 0.1980007 0.4180206 0.0906496 -0.2343522 0.3908099 -0.3422336 -0.0219980 0.4983785 0.4920922 -0.0580537 -0.4532837 -0.3213093 -0.3606730 -0.0759129 -0.2876812 -0.1604938 0.2307346 -0.4470954 -0.2153355 -0.0657647 0.0413004 0.2195783 0.3381769 0.4064328 0.0312526 0.4636077 -0.4261337 -0.2446505 0.1395269 0.2052353 -0.0290456 0.1587381 0.2523583 0.3116289 0.3058006 -0.3887285 -0.2455886 0.4371513 0.3238850 -0.2156754 -0.4553797 -0.0928108 -0.0928652 -0.3350832 0.2434314 0.3836708 0.0529743 -0.3964495 -0.3634735 0.1084103 -0.1283908 0.0920334 0.0235694 -0.1106479 0.1002222 0.0157808 0.0404481 0.1513008 -0.3799963 -0.1392981 0.1884991 0.3346718 0.4268890 -0.5610334 0.1384612 -0.3857174 -0.5660860 0.1384054 -0.2454495 0.2785301 -0.3183854 0.0242316 -0.4589368 0.0807901 -0.2381045 -0.6375579 -0.3813218 0.1839276 -0.2950156 0.1181784 -0.4056589 -0.3598785 0.1564075 0.1578954 -0.5125857 -0.1781553 0.5658360 -0.5039006 0.2021763 -0.0113161 -0.0154875 -0.0066428 0.4546866 0.0077826 -0.1148401 0.4576590 -0.1732878 -0.2874480 -0.7914707 -0.4210547 -0.0086048 -0.1003440 0.2382700 -0.3440238 -0.4840911 0.3709818 0.1705053 -0.3197226 -0.0670810 0.5561752 0.0385598 0.3366557 0.0220233 -0.4668573 0.5821817 0.4191620 -0.3614669 -0.0160948 -0.2955280 0.1423377 -0.2230869 -0.5386156 0.0192147 0.1088404 0.0682868 0.0982955 -0.1059560 -0.5006304 -0.0255788 -0.3485579 0.4488465 -0.0563362 0.0483789 -0.5782508 -0.3668469 -0.4696164 -0.0575710 -0.2431924 -0.1822874 -0.0499518 -0.3137841 0.0807153 -0.5424665 0.3371466 -0.1873337 -0.0155607 0.1181271 0.1747607 -0.0965952 0.0196827 0.4451007 0.0922307 -0.0905279 -0.0509207 -0.2006071 0.3179501 -0.2427673 
0.0063176